{"A": {"x": -0.9698684166787047, "y": -0.24362933798937797}, "B": {"x": -0.3766461408742762, "y": 0.9263572121835695}, "C": {"x": 0.6428414139244937, "y": 0.7659992927826746}, "D": {"x": 0.5312060401396584, "y": -0.8472426706199018}, "E": {"x": 0.9855350247755067, "y": 0.16947187064743585}, "F": {"x": -0.019971484615603854, "y": 0.9998005500109753}, "G": {"x": -0.7465114232827548, "y": 0.6653725985553928}, "H": {"x": -0.6858653269384334, "y": -0.7277284887261429}, "I": {"x": 0.484217584716016, "y": -0.8749476159472567}, "J": {"x": 0.5087754720255869, "y": -0.8608992502407823}, "K": {"x": -0.9581093670895635, "y": -0.2864025850009663}, "L": {"x": 0.009018798915950615, "y": -0.9999593298060245}, "M": {"x": 0.47725903201949926, "y": -0.8787626621311415}, "N": {"x": 0.18688904075363771, "y": 0.982381029156297}, "O": {"x": -0.6025089105574014, "y": 0.7981121554637127}, "P": {"x": -0.5254252883589943, "y": -0.8508397418743835}, "Q": {"x": 0.4897774354572597, "y": 0.871847500264186}, "R": {"x": -0.6808510550116317, "y": -0.7324219008805978}, "S": {"x": -0.6545466866635182, "y": 0.7560215836719281}, "T": {"x": 0.002613231495221464, "y": 0.9999965855047468}, "U": {"x": -0.7219514631585718, "y": 0.6919437006311984}, "V": {"x": -0.047427190102397696, "y": -0.9988746976668249}, "W": {"x": -0.6702114574831292, "y": 0.7421701976355154}, "X": {"x": -0.9882990144314754, "y": -0.15252887619652256}, "Y": {"x": -0.30118734608909564, "y": 0.9535649860160591}, "Z": {"x": 0.9960048744326515, "y": 0.08929888076789094}, "a": {"x": 0.13762927037491418, "y": -0.9904838130611063}, "b": {"x": -0.0859619003464822, "y": 0.9962984250157286}, "c": {"x": -0.5144957554275266, "y": 0.8574929257125443}, "d": {"x": 0.9739663775784885, "y": -0.2266925127714576}, "e": {"x": 0.05820384414245541, "y": -0.9983047192751523}, "f": {"x": -0.9276406852042657, "y": -0.37347390692491544}, "g": {"x": 0.5614720483133572, "y": -0.8274957032896323}, "h": {"x": 0.13658001156345947, "y": 0.9906290428012523}, "i": {"x": 0.2833332661971638, "y": 0.9590215118890958}, "j": {"x": -0.9545583020589679, "y": -0.29802424057499116}, "k": {"x": 0.8586122313903588, "y": 0.512625629584465}, "l": {"x": 0.02260963947733496, "y": -0.9997443694278577}, "m": {"x": -0.5714657194714783, "y": 0.8206259388228878}, "n": {"x": 0.7420971299595004, "y": 0.6702923613661969}, "o": {"x": 0.9986273876758307, "y": 0.052376908879256834}, "p": {"x": -0.19053704751328376, "y": -0.9816800056662663}, "q": {"x": 0.6736217829895498, "y": -0.7390762433483976}, "r": {"x": 0.5421268698220931, "y": 0.8402966482242443}, "s": {"x": 0, "y": 0}, "t": {"x": -0.7767557487195037, "y": -0.6298019584212192}, "u": {"x": 0.6356442328860972, "y": -0.7719821301031812}, "v": {"x": -0.6686142218905622, "y": -0.7436094554843139}, "w": {"x": -0.8236551778284192, "y": -0.5670909521729603}, "x": {"x": 0.9429212347925732, "y": -0.33301583292277387}, "y": {"x": 0.7316945435866595, "y": -0.6816326685873486}, "z": {"x": 0.6797303358841057, "y": 0.7334621125040344}, "0": {"x": -0.014328746903075779, "y": -0.9998973382363749}, "1": {"x": -0.5225620579292874, "y": -0.8526012524109426}, "2": {"x": -0.28781055012818835, "y": -0.9576873640363589}, "3": {"x": 0.37832629873587803, "y": 0.9256723025373564}, "4": {"x": 0, "y": 0}, "5": {"x": -0.9942202343041892, "y": -0.10735979554806868}, "6": {"x": 0, "y": 0}, "7": {"x": -0.743677504233321, "y": -0.6685385326944877}, "8": {"x": -0.5336950410956497, "y": 0.8456770087391007}, "9": {"x": 0.8268962709694869, "y": 0.5623544763374404}}